tree
version=v4
num_class=1
num_tree_per_iteration=1
label_index=0
max_feature_idx=62
objective=binary sigmoid:1
feature_names=return_1d log_return_1d return_3d log_return_3d return_5d log_return_5d return_10d log_return_10d return_20d log_return_20d return_50d log_return_50d volatility_5d realized_vol_5d volatility_10d realized_vol_10d volatility_20d realized_vol_20d ma_5 ma_5_ratio ma_5_slope ma_10 ma_10_ratio ma_10_slope ma_20 ma_20_ratio ma_20_slope ma_50 ma_50_ratio ma_50_slope ma_200 ma_200_ratio ma_200_slope rsi_14 rsi_30 atr_14 atr_30 high_20 low_20 price_position_20 high_50 low_50 price_position_50 volume_ma_10 volume_ratio_10 volume_ma_20 volume_ratio_20 volume_ma_50 volume_ratio_50 high_low_ratio close_open_ratio momentum_5d momentum_10d momentum_20d index_return_1d index_return_3d index_return_5d index_return_10d relative_strength_5d relative_strength_10d relative_strength_20d beta_approx_20 beta_approx_60
feature_infos=[-0.12864714321040871:0.1198084051678398] [-0.13770826730211319:0.113157603858978] [-0.1414003153179178:0.15184738608001419] [-0.1524524904383292:0.14136707613669999] [-0.1753066988422268:0.18414061580124819] [-0.19274371793830869:0.16901729275565491] [-0.20686440899952629:0.2268026303249786] [-0.23176108709534679:0.2044112973092789] [-0.26772067291084811:0.34529243682221411] [-0.3115932434253586:0.2966114145670084] [-0.27364111322654788:0.49828039513697781] [-0.31971105190164412:0.40431804724330428] [0:0.1073096722121559] [0:1.7034882356713379] [0:0.080056141155119206] [0:1.2708518425195718] [0:0.068004154781159801] [0:1.0795324900205574] [0:175.68651428222657] [0:1.094217410254275] [-0.10939347935388299:0.16299798869684901] [0:174.66788787841796] [0:1.118199393710569] [-0.090963814152833597:0.0923993021813065] [0:172.77166976928712] [0:1.1474934237371208] [-0.065809277640345207:0.072030055253542905] [0:169.15484436035158] [0:1.2810073645569744] [-0.027122110716869201:0.0400703471443851] [0:158.04500694274901] [0:1.3771905782800875] [-0.0069461749319620998:0.0181177396737793] [0:93.241929557726294] [0:81.157681489307265] [0:6.7163609529463404] [0:5.9518757757546412] [0:179.18121654083714] [0:164.01926542394992] [0:0.99922268938415915] [0:179.18121654083714] [0:151.52143956606849] [0:0.99903662618836464] [0:333735560] [0:2.4744115604142589] [0:310295280] [0:2.678134221502209] [0:226351912] [0:2.683913839162138] [1.0076728463435574:1.1155198631896608] [0.92742136210777959:1.0665880426018024] [-0.1753066988422268:0.18414061580124819] [-0.20686440899952629:0.2268026303249786] [-0.26772067291084811:0.34529243682221411] [-0.1198405524039344:0.0938277397622755] [-0.12958802325328719:0.1755028976287564] [-0.1796662828480215:0.17397426342615269] [-0.23386323595434111:0.1905247375984653] [-0.089445070282814704:0.1524299053949065] [-0.1243050449939692:0.19172477817641709] [-0.16799268620524871:0.28884003529828539] [0:3.041460897291187] [0:2.0089777074295778]
tree_sizes=2609 2652

Tree=0
num_leaves=24
num_cat=0
split_feature=35 4 48 37 50 20 23 42 61 29 57 54 20 22 62 19 14 47 55 4 39 6 6
split_gain=14.1274 12.3386 7.911 9.13471 8.79954 8.62309 12.1117 11.2553 7.70608 7.54651 7.74646 7.53127 5.91506 5.02444 4.54226 4.93393 4.27181 4.25017 5.53388 4.84989 2.54333 1.76648 1.00558
threshold=2.5844202301464247 -0.061375649922634397 0.69877946928907664 128.18710178944175 0.99856762576240821 0.04991567645437351 0.0063469834567607009 0.85745148612721978 1.3216200024404434 -0.010631203546744497 -0.022164564266396593 0.0025578458365824006 -0.019259323441282398 0.96961363075592211 1.2858374756734052 0.99845334591476365 0.016297617228803105 79285770.000000015 0.0011994829359063001 0.035799710903436206 0.84986696812770901 -0.017206470631878048 0.0049339057435689509
decision_type=2 2 2 2 2 2 2 2 2 2 2 2 2 2 2 2 2 2 2 2 2 2 2
left_child=17 -2 4 11 -3 6 9 8 -8 -5 12 -4 13 -11 -12 -16 -9 18 -1 20 22 -17 -19
right_child=1 2 3 5 -6 -7 7 16 -10 10 14 -13 -14 -15 15 21 -18 19 -20 -21 -22 -23 -24
leaf_value=0.063155123754044473 0.23913220065499668 0.14170544527730689 0.28784557834384161 0.20381500183058421 -0.02009255918921371 0.010407669475342107 0.28207688888068877 0.022966587160747412 0.1485557640148007 0.1051704120106732 -0.032850824774386916 0.13973057861424559 0.044808183135365262 0.24400353842388117 0.13088025023534133 -0.020092559189213766 0.14964784381353158 0.24400353842388103 0.19403941184843079 0.14576489341804394 0.19577729451192472 0.063155123754044515 0.30611309497715844
leaf_weight=4.9765434861183158 8.2112967520952207 5.4741978347301474 5.4741978347301474 4.9765434861183087 8.7089511007070524 7.9624695777893058 9.455432623624807 4.9765434861183149 7.9624695777893058 5.4741978347301501 6.7183337062597444 9.206605449318884 5.7230250090360562 4.9765434861183167 6.7183337062597301 5.2253706604242289 5.7230250090360641 4.976543486118322 9.206605449318884 6.7183337062597266 6.2206793576478949 4.9765434861183184 5.4741978347301483
leaf_count=20 33 22 22 20 35 32 38 20 32 22 27 37 23 20 27 21 23 20 37 27 25 20 22
internal_value=0.137906 0.120894 0.112047 0.122391 0.0423558 0.109217 0.120009 0.171451 0.221039 0.0877148 0.0732023 0.19496 0.126529 0.171281 0.0367153 0.0643371 0.0907263 0.191306 0.148115 0.217496 0.246403 0.0205161 0.276537
internal_weight=155.517 117.944 109.733 95.5496 14.1831 80.8688 72.9064 28.1175 17.4179 44.7889 39.8123 14.6808 16.1738 10.4507 23.6386 16.9202 10.6996 37.5729 14.1831 23.3898 16.6714 10.2019 10.4507
internal_count=625 474 441 384 57 325 293 113 70 180 160 59 65 42 95 68 43 151 57 94 67 41 42
is_linear=0
shrinkage=1


Tree=1
num_leaves=24
num_cat=0
split_feature=35 25 42 31 35 28 33 25 48 25 42 6 42 0 62 31 56 56 56 12 62 14 14
split_gain=11.4974 11.4396 8.51659 7.41233 9.75698 9.70308 8.92398 9.32485 11.2252 8.37226 8.26455 7.17309 6.00372 5.65574 4.82404 4.78529 4.60016 3.79512 5.50231 5.66168 7.63714 2.02237 1.31873
threshold=2.5844202301464247 0.92662295036119591 0.098628732846956571 1.0615630957182438 4.2426927940518766 0.99369084306561062 39.07877222035544 1.0587431695757341 0.87641441315893853 1.0014191168759379 0.39816005938922705 0.0095213864968790012 0.94538966984553552 0.0059193532594021504 1.3864750193969411 0.93771488047386276 0.004373714917251751 0.019061453389940652 0.013385580128414452 0.011474266938245551 0.92957544807578396 0.010277154509231201 0.018477332593948351
decision_type=2 2 2 2 2 2 2 2 2 2 2 2 2 2 2 2 2 2 2 2 2 2 2
left_child=17 -2 -3 4 5 22 -5 8 11 -7 15 -8 14 -10 -11 16 -6 18 19 21 -21 -1 -4
right_child=1 2 3 6 10 9 7 -9 13 12 -12 -13 -14 -15 -16 -17 -18 -19 -20 20 -22 -23 -24
leaf_value=0.031132369307177599 0.10345890673400666 -0.15073030276363361 0.15213761752941063 -0.15790476693856534 0.025353783087398909 -0.089980251349809942 -0.13340208392835282 -0.12813272206429266 0.00083191452710551983 0.12329348428322871 -0.13058425689459263 0.00089197102305655989 -0.053417294819455889 0.11790258731953417 0.00025381084204260343 0.075479392322875885 -0.11071269482041045 -0.01770306121594992 0.16081268119744194 -0.007804742140135143 0.1382705227292321 -0.058119555388540273 0.081598217876732687
leaf_weight=5.2082318812608772 7.6647660434246054 4.9755815267562857 5.7106311470270139 6.2328118681907645 4.9630999416112918 6.7227165699005154 7.9636173546314222 7.7353221625089637 9.6769950985908526 8.1669857800006884 7.4657045602798453 7.9457710981369019 4.9692635387182227 7.1946562975645056 5.2253521531820288 5.220120593905448 4.9756365418434143 6.9439575076103202 4.9405149966478339 5.7013325393199912 9.6153948158025724 4.9532757103443146 4.9454653561115265
leaf_count=21 31 20 23 25 20 27 32 31 39 33 30 32 20 29 21 21 20 28 20 23 39 20 20
internal_value=0.00066985 -0.0146657 -0.0228899 -0.0168386 0.00692752 0.0394581 -0.0465098 -0.0293734 -0.00606926 0.0054977 -0.0444616 -0.0663304 0.040455 0.0507549 0.0752865 -0.00204641 -0.0427653 0.0490023 0.0642297 0.0455012 0.083897 -0.0123739 0.1194
internal_weight=155.117 117.754 110.09 105.114 58.365 35.7404 46.7492 40.5164 32.781 25.0843 22.6246 15.9094 18.3616 16.8717 13.3923 15.1589 9.93874 37.3627 30.4187 25.4782 15.3167 10.1615 10.6561
internal_count=625 474 443 423 235 144 188 163 132 101 91 64 74 68 54 61 40 151 123 103 62 41 43
is_linear=0
shrinkage=0.1


end of trees

feature_importances:
price_position_50=4
return_10d=3
volatility_10d=3
ma_20_ratio=3
atr_14=3
index_return_5d=3
beta_approx_60=3
return_5d=2
ma_5_slope=2
ma_200_ratio=2
volume_ratio_50=2
return_1d=1
volatility_5d=1
ma_5_ratio=1
ma_10_ratio=1
ma_10_slope=1
ma_50_ratio=1
ma_50_slope=1
rsi_14=1
high_20=1
price_position_20=1
volume_ma_50=1
close_open_ratio=1
index_return_1d=1
index_return_3d=1
index_return_10d=1
beta_approx_20=1

parameters:
[boosting: gbdt]
[objective: binary]
[metric: binary_logloss]
[tree_learner: serial]
[device_type: cpu]
[data_sample_strategy: bagging]
[data: ]
[valid: ]
[num_iterations: 100]
[learning_rate: 0.1]
[num_leaves: 31]
[num_threads: 0]
[seed: 42]
[deterministic: 0]
[force_col_wise: 0]
[force_row_wise: 0]
[histogram_pool_size: -1]
[max_depth: -1]
[min_data_in_leaf: 20]
[min_sum_hessian_in_leaf: 0.001]
[bagging_fraction: 0.8]
[pos_bagging_fraction: 1]
[neg_bagging_fraction: 1]
[bagging_freq: 5]
[bagging_seed: 400]
[bagging_by_query: 0]
[feature_fraction: 0.8]
[feature_fraction_bynode: 1]
[feature_fraction_seed: 30056]
[extra_trees: 0]
[extra_seed: 12879]
[early_stopping_round: 0]
[early_stopping_min_delta: 0]
[first_metric_only: 0]
[max_delta_step: 0]
[lambda_l1: 0]
[lambda_l2: 0]
[linear_lambda: 0]
[min_gain_to_split: 0]
[drop_rate: 0.1]
[max_drop: 50]
[skip_drop: 0.5]
[xgboost_dart_mode: 0]
[uniform_drop: 0]
[drop_seed: 17869]
[top_rate: 0.2]
[other_rate: 0.1]
[min_data_per_group: 100]
[max_cat_threshold: 32]
[cat_l2: 10]
[cat_smooth: 10]
[max_cat_to_onehot: 4]
[top_k: 20]
[monotone_constraints: ]
[monotone_constraints_method: basic]
[monotone_penalty: 0]
[feature_contri: ]
[forcedsplits_filename: ]
[refit_decay_rate: 0.9]
[cegb_tradeoff: 1]
[cegb_penalty_split: 0]
[cegb_penalty_feature_lazy: ]
[cegb_penalty_feature_coupled: ]
[path_smooth: 0]
[interaction_constraints: ]
[verbosity: -1]
[saved_feature_importance_type: 0]
[use_quantized_grad: 0]
[num_grad_quant_bins: 4]
[quant_train_renew_leaf: 0]
[stochastic_rounding: 1]
[linear_tree: 0]
[max_bin: 255]
[max_bin_by_feature: ]
[min_data_in_bin: 3]
[bin_construct_sample_cnt: 200000]
[data_random_seed: 175]
[is_enable_sparse: 1]
[enable_bundle: 1]
[use_missing: 1]
[zero_as_missing: 0]
[feature_pre_filter: 1]
[pre_partition: 0]
[two_round: 0]
[header: 0]
[label_column: ]
[weight_column: ]
[group_column: ]
[ignore_column: ]
[categorical_feature: ]
[forcedbins_filename: ]
[precise_float_parser: 0]
[parser_config_file: ]
[objective_seed: 16083]
[num_class: 1]
[is_unbalance: 0]
[scale_pos_weight: 1]
[sigmoid: 1]
[boost_from_average: 1]
[reg_sqrt: 0]
[alpha: 0.9]
[fair_c: 1]
[poisson_max_delta_step: 0.7]
[tweedie_variance_power: 1.5]
[lambdarank_truncation_level: 30]
[lambdarank_norm: 1]
[label_gain: ]
[lambdarank_position_bias_regularization: 0]
[eval_at: ]
[multi_error_top_k: 1]
[auc_mu_weights: ]
[num_machines: 1]
[local_listen_port: 12400]
[time_out: 120]
[machine_list_filename: ]
[machines: ]
[gpu_platform_id: -1]
[gpu_device_id: -1]
[gpu_use_dp: 0]
[num_gpu: 1]

end of parameters

pandas_categorical:[]
